{
    "user_id": 132,
    "item_id": 5646,
    "user_mlp_embedding": [
        0.04946896806359291,
        0.03496871143579483,
        0.053754664957523346,
        0.04400378465652466,
        0.04132179915904999,
        -0.04658142104744911,
        -0.04375358298420906,
        -0.03776136413216591,
        0.03766103833913803,
        0.04068824648857117,
        0.03322051092982292,
        0.03339235857129097,
        0.034095462411642075,
        -0.05015651881694794,
        0.0381045900285244,
        0.04460744187235832,
        -0.05330102518200874,
        -0.04448879510164261,
        -0.09054407477378845,
        0.04057968780398369,
        -0.041647229343652725,
        0.03665218502283096,
        0.027835464105010033,
        -0.027474738657474518,
        -0.05081246420741081,
        0.05445437505841255,
        0.05083519592881203,
        0.04389399662613869,
        0.04301708564162254,
        0.032466769218444824,
        0.030669840052723885,
        0.014369972981512547
    ],
    "item_mlp_embedding": [
        0.06812097877264023,
        0.061832576990127563,
        0.05656526982784271,
        0.06199685111641884,
        -0.06355683505535126,
        0.05815945565700531,
        -0.0677536353468895,
        0.06331348419189453,
        0.0626167431473732,
        0.09017781168222427,
        0.06284236162900925,
        0.05061913654208183,
        0.06201880797743797,
        0.06348308175802231,
        0.06184999644756317,
        0.060587845742702484,
        -0.06912772357463837,
        0.05847485363483429,
        -0.062041986733675,
        0.055844828486442566,
        -0.05557858571410179,
        -0.0595991387963295,
        -0.07163391262292862,
        0.059261951595544815,
        -0.06305303424596786,
        0.07584540545940399,
        -0.06119856238365173,
        -0.06491192430257797,
        -0.0637630894780159,
        -0.05534058064222336,
        -0.06464344263076782,
        0.05454300716519356
    ],
    "user_mf_embedding": [
        2.2613783675490273e-12,
        -3.237935483293595e-15,
        -1.0391562149615272e-13,
        -1.5669669050528372e-18,
        9.346968868281802e-17,
        -2.0321524779602542e-17,
        4.816927293236489e-15,
        1.4004472596504652e-14,
        -1.7891118850364793e-15,
        2.5458778016513098e-14,
        3.3505529737889173e-17,
        -8.46457452741145e-13,
        -2.9114412974668574e-14,
        5.699787023654215e-14,
        1.5214411092537663e-15,
        -6.390061023316173e-15,
        2.278143816034908e-16,
        9.310446395782972e-15,
        -3.038258900923182e-15,
        -1.176051354791327e-15,
        -8.444271757529487e-13,
        -4.13526071024739e-12,
        1.592370483586539e-15,
        8.1448667255124e-12,
        6.194809208713318e-17,
        -1.6048355263174516e-15,
        8.003766920061661e-12,
        1.254037572365912e-15,
        3.721721146326615e-14,
        -3.8845877255702974e-17,
        -6.831070580188696e-17,
        4.706337401093547e-15
    ],
    "item_mf_embedding": [
        1.2334276395381538e-12,
        1.7239386289758917e-16,
        -3.972912324373256e-15,
        -2.646640801352012e-17,
        -1.0811055259094611e-15,
        6.4575257417271e-17,
        -1.7895275002808954e-17,
        1.902963734940616e-13,
        6.194472018661301e-13,
        6.122327672974481e-16,
        1.4834897980520374e-15,
        2.4828392380243924e-14,
        3.0277782975690083e-16,
        -4.85236681293643e-14,
        8.555936720829743e-14,
        7.276937129859894e-15,
        7.590615611903468e-17,
        3.774542290323982e-15,
        -3.6681009114468074e-14,
        -2.8891351506690364e-16,
        9.594450613766708e-14,
        -3.000547808265294e-14,
        -1.8327189675759232e-16,
        -2.4828300873580567e-11,
        8.848698031290315e-16,
        -2.4142699515925545e-16,
        -1.410761438225272e-11,
        1.8550112600911007e-15,
        6.91537688115966e-15,
        -9.085060245881023e-15,
        1.4980015900208717e-16,
        -2.095585430715325e-14
    ],
    "mf_product": [
        2.7892465000714013e-24,
        -5.582001845077449e-31,
        4.128476391861949e-28,
        4.147198597026874e-35,
        -1.010505960421664e-31,
        -1.3122677103152686e-33,
        -8.620024089233846e-32,
        2.6650003605349878e-27,
        -1.1082603049825992e-27,
        1.5586698493937267e-29,
        4.970511447021221e-32,
        -2.1016177420717105e-26,
        -8.815198774895507e-30,
        -2.765745755925884e-27,
        1.3017353271876036e-28,
        -4.650007086519522e-29,
        1.7292513723954356e-32,
        3.514267239941479e-29,
        1.1144640382970865e-28,
        3.3977713581280955e-31,
        -8.101814735583234e-26,
        1.2408047412408529e-25,
        -2.9183676162412807e-31,
        -2.0222320563240906e-22,
        5.481599346090665e-32,
        3.8745062576408034e-31,
        -1.129140537418037e-22,
        2.3262538554750244e-30,
        2.5737104626508064e-28,
        3.529171408047193e-31,
        -1.0232954565080456e-32,
        -9.862531967105269e-29
    ],
    "mlp_output": [
        2.341628313064575,
        2.12868595123291,
        2.521577835083008,
        1.949976921081543,
        0.0,
        0.0,
        0.0,
        0.4410945773124695,
        0.0,
        1.5168882608413696,
        0.0,
        0.0,
        0.0,
        0.0,
        0.0,
        2.085639476776123
    ],
    "final_vector": [
        2.341628313064575,
        2.12868595123291,
        2.521577835083008,
        1.949976921081543,
        0.0,
        0.0,
        0.0,
        0.4410945773124695,
        0.0,
        1.5168882608413696,
        0.0,
        0.0,
        0.0,
        0.0,
        0.0,
        2.085639476776123,
        2.7892465000714013e-24,
        -5.582001845077449e-31,
        4.128476391861949e-28,
        4.147198597026874e-35,
        -1.010505960421664e-31,
        -1.3122677103152686e-33,
        -8.620024089233846e-32,
        2.6650003605349878e-27,
        -1.1082603049825992e-27,
        1.5586698493937267e-29,
        4.970511447021221e-32,
        -2.1016177420717105e-26,
        -8.815198774895507e-30,
        -2.765745755925884e-27,
        1.3017353271876036e-28,
        -4.650007086519522e-29,
        1.7292513723954356e-32,
        3.514267239941479e-29,
        1.1144640382970865e-28,
        3.3977713581280955e-31,
        -8.101814735583234e-26,
        1.2408047412408529e-25,
        -2.9183676162412807e-31,
        -2.0222320563240906e-22,
        5.481599346090665e-32,
        3.8745062576408034e-31,
        -1.129140537418037e-22,
        2.3262538554750244e-30,
        2.5737104626508064e-28,
        3.529171408047193e-31,
        -1.0232954565080456e-32,
        -9.862531967105269e-29
    ],
    "final_contributions": [
        0.22108712792396545,
        0.1858559399843216,
        0.2690792977809906,
        0.14979565143585205,
        -0.0,
        -0.0,
        -0.0,
        0.00864201970398426,
        -0.0,
        0.13807061314582825,
        -0.0,
        -0.0,
        -0.0,
        0.0,
        0.0,
        0.1745203733444214,
        8.369561522386232e-27,
        -3.6260127560817106e-34,
        -9.560772335746358e-31,
        5.3620125218003395e-40,
        -2.9240929941792526e-35,
        -9.267078775179981e-38,
        -2.341633390952368e-35,
        -5.49482708998092e-30,
        -6.691789353072953e-31,
        -1.876317470626812e-32,
        1.1765315897035032e-35,
        4.439857134151832e-29,
        9.135265450655126e-33,
        -3.4220088761477e-30,
        -2.3396571712015183e-31,
        2.800292911508387e-32,
        3.5809196190117324e-36,
        -1.9850401186287161e-32,
        -1.3902598723545263e-31,
        3.102858536070771e-35,
        -1.5961621081770453e-28,
        -4.198223944797933e-28,
        8.207590265282258e-35,
        -8.942610051980438e-25,
        1.3097450753315862e-35,
        2.340607846747616e-34,
        -5.354761693622743e-25,
        3.406524221307433e-33,
        -5.5965695114683194e-31,
        1.6724281591476785e-34,
        8.98306662923531e-37,
        1.316540742483103e-31
    ],
    "raw_score": 0.7593395113945007,
    "predicted_score": 3.7966975569725037,
    "affine_bias": 0.0020107305608689785,
    "affine_weights": [
        0.09441597759723663,
        0.08731017261743546,
        0.10671067982912064,
        0.07681918889284134,
        -0.0674055889248848,
        -0.24193841218948364,
        -0.002894464647397399,
        0.01959221437573433,
        -1.155411695727751e-19,
        0.09102226793766022,
        -0.1431274265050888,
        -0.053916141390800476,
        -0.2439400851726532,
        0.014453730545938015,
        0.02152922749519348,
        0.08367715030908585,
        0.003000653116032481,
        0.0006495900452136993,
        -0.0023158113472163677,
        1.2929247532156296e-05,
        0.00028936919989064336,
        7.061881478875875e-05,
        0.0002716504386626184,
        -0.0020618485286831856,
        0.0006038102437742054,
        -0.0012037940323352814,
        0.0002367023262195289,
        -0.002112590242177248,
        -0.0010363084729760885,
        0.0012372825294733047,
        -0.0017973370850086212,
        -0.0006022126181051135,
        0.00020707918156404048,
        -0.0005648517981171608,
        -0.0012474694522097707,
        9.132040577242151e-05,
        0.0019701290875673294,
        -0.0033834686037153006,
        -0.00028123907395638525,
        0.00442214822396636,
        0.00023893483739811927,
        0.0006041048327460885,
        0.004742334131151438,
        0.0014643819304183125,
        -0.002174514112994075,
        0.00047388693201355636,
        -8.778565825195983e-05,
        -0.001334891188889742
    ]
}