{
    "user_id": 52,
    "item_id": 6542,
    "user_mlp_embedding": [
        -0.1587020754814148,
        -0.1401839554309845,
        -0.13030976057052612,
        -0.1428990513086319,
        -0.13083915412425995,
        0.12442360818386078,
        0.11300162225961685,
        0.12194345891475677,
        -0.15659606456756592,
        -0.1123092845082283,
        -0.12256067246198654,
        -0.12778887152671814,
        -0.09987913817167282,
        0.12722674012184143,
        -0.11030752211809158,
        -0.10948674380779266,
        0.15738900005817413,
        0.1336628943681717,
        0.1304577738046646,
        -0.11970628798007965,
        0.10050737857818604,
        -0.12624943256378174,
        -0.10625367611646652,
        0.12018991261720657,
        0.1385887712240219,
        -0.11919144541025162,
        -0.10406046360731125,
        -0.13525798916816711,
        -0.11684691905975342,
        -0.12358804047107697,
        -0.07653270661830902,
        -0.11939406394958496
    ],
    "item_mlp_embedding": [
        0.0523853674530983,
        0.04669342190027237,
        0.0520913228392601,
        0.03432133421301842,
        -0.05267610773444176,
        0.05520331487059593,
        -0.0469321645796299,
        0.05211002379655838,
        0.05298873037099838,
        0.05319519713521004,
        0.05081822723150253,
        0.06001405045390129,
        0.05531935766339302,
        0.04214678704738617,
        0.048507556319236755,
        0.05013484135270119,
        -0.050433434545993805,
        0.045467622578144073,
        -0.04719383642077446,
        0.051537659019231796,
        -0.044327303767204285,
        -0.052859965711832047,
        -0.05452921241521835,
        0.05211056396365166,
        -0.04964263364672661,
        0.053500913083553314,
        -0.04787267744541168,
        -0.05831068009138107,
        -0.050620730966329575,
        -0.045715343207120895,
        -0.0499865785241127,
        0.04913046956062317
    ],
    "user_mf_embedding": [
        5.516693330452627e-13,
        3.238065344032321e-16,
        -1.473441425022936e-14,
        -1.0562950838514354e-16,
        4.612739929549702e-17,
        -2.3559820245281276e-18,
        3.690724483841612e-14,
        5.825068342278281e-16,
        -6.108902730156093e-16,
        -4.6294700081631664e-15,
        2.2472261787460337e-18,
        -3.5472205007309673e-14,
        6.642655142033351e-15,
        2.716452618943023e-14,
        6.975815223045096e-15,
        -8.037197851475537e-17,
        -5.642550344548414e-17,
        -1.8324412995879014e-17,
        7.753489724446425e-15,
        9.1069003750036e-18,
        -2.491477889884214e-13,
        2.4402773638604325e-12,
        -1.3520110940479587e-16,
        5.079559169118841e-12,
        4.381390416236176e-17,
        -5.601857028877746e-17,
        2.647690226786903e-12,
        -1.190172135175885e-15,
        -1.2154643272226616e-14,
        -9.473048398991624e-17,
        1.9920167647405075e-18,
        1.271422627146775e-14
    ],
    "item_mf_embedding": [
        -8.776732629783932e-15,
        -6.021776424893148e-18,
        -5.72831018730291e-12,
        -4.808826898786215e-19,
        -1.1968002103397973e-14,
        -8.020843663584751e-18,
        -3.884137765786848e-15,
        -6.390090245952853e-15,
        2.8157166810822976e-13,
        9.68492864031334e-13,
        -2.120499668720103e-17,
        -5.883868153984395e-13,
        -6.159053433380652e-16,
        -9.02818706567058e-15,
        -7.067112330451722e-14,
        2.2666054146427972e-13,
        1.8745123672868385e-16,
        3.124984910326655e-15,
        -4.611894286265877e-16,
        1.4513718265685783e-18,
        2.8386039178929234e-15,
        4.0963059610987784e-09,
        -1.5275421816937206e-15,
        -3.4659998395664138e-12,
        8.891380947944746e-17,
        -8.534252931489917e-16,
        -1.0069451782807048e-12,
        1.961932440781248e-15,
        4.535206676078551e-15,
        1.771017279226031e-13,
        -8.633460077250301e-17,
        -4.854626400378173e-16
    ],
    "mf_product": [
        -4.841854132179598e-27,
        -1.949890560018825e-33,
        8.440329741155543e-26,
        5.079540104671648e-35,
        -5.520528192506847e-31,
        1.889696278076693e-35,
        -1.433528278100102e-28,
        -3.722271134590669e-30,
        -1.720093894539041e-28,
        -4.483608821736217e-27,
        -4.765242302620539e-35,
        2.0871378303778295e-26,
        -4.091246962330729e-30,
        -2.452464265225637e-28,
        -4.929887138083075e-28,
        -1.821715618147289e-29,
        -1.0577030577773771e-32,
        -5.726351375864075e-32,
        -3.57582748412794e-30,
        1.3217498400879513e-35,
        -7.072319052721143e-28,
        9.99612308132745e-21,
        2.0652540017252265e-31,
        -1.760575192879004e-23,
        3.895661012338018e-33,
        4.7807663815209524e-32,
        -2.6660788859260765e-24,
        -2.3350373373434646e-30,
        -5.512381640497456e-29,
        -1.6776932227365193e-29,
        -1.7197997779252253e-34,
        -6.1722819757157446e-30
    ],
    "mlp_output": [
        6.536381244659424,
        6.066999435424805,
        7.075466632843018,
        5.514467716217041,
        0.0,
        0.0,
        0.0,
        1.4157869815826416,
        0.0,
        4.331078052520752,
        0.0,
        0.0,
        0.0,
        0.0,
        0.0,
        5.770601749420166
    ],
    "final_vector": [
        6.536381244659424,
        6.066999435424805,
        7.075466632843018,
        5.514467716217041,
        0.0,
        0.0,
        0.0,
        1.4157869815826416,
        0.0,
        4.331078052520752,
        0.0,
        0.0,
        0.0,
        0.0,
        0.0,
        5.770601749420166,
        -4.841854132179598e-27,
        -1.949890560018825e-33,
        8.440329741155543e-26,
        5.079540104671648e-35,
        -5.520528192506847e-31,
        1.889696278076693e-35,
        -1.433528278100102e-28,
        -3.722271134590669e-30,
        -1.720093894539041e-28,
        -4.483608821736217e-27,
        -4.765242302620539e-35,
        2.0871378303778295e-26,
        -4.091246962330729e-30,
        -2.452464265225637e-28,
        -4.929887138083075e-28,
        -1.821715618147289e-29,
        -1.0577030577773771e-32,
        -5.726351375864075e-32,
        -3.57582748412794e-30,
        1.3217498400879513e-35,
        -7.072319052721143e-28,
        9.99612308132745e-21,
        2.0652540017252265e-31,
        -1.760575192879004e-23,
        3.895661012338018e-33,
        4.7807663815209524e-32,
        -2.6660788859260765e-24,
        -2.3350373373434646e-30,
        -5.512381640497456e-29,
        -1.6776932227365193e-29,
        -1.7197997779252253e-34,
        -6.1722819757157446e-30
    ],
    "final_contributions": [
        0.6171388030052185,
        0.5297107696533203,
        0.7550278306007385,
        0.4236169457435608,
        -0.0,
        -0.0,
        -0.0,
        0.027738401666283607,
        -0.0,
        0.3942245543003082,
        -0.0,
        -0.0,
        -0.0,
        0.0,
        0.0,
        0.4828675091266632,
        -1.4528724990174596e-29,
        -1.2666295116389723e-36,
        -1.9546211246218801e-28,
        6.56746551275112e-40,
        -1.597470879239824e-34,
        1.3344817509488811e-39,
        -3.89418591386453e-32,
        7.674759270164529e-33,
        -1.0386102671082987e-31,
        5.3973415567158145e-30,
        -1.127943949902507e-38,
        -4.4092670471773327e-29,
        4.2397939630389506e-33,
        -3.034391259656142e-31,
        8.860668589097178e-31,
        1.0970601514792427e-32,
        -2.1902828611852106e-36,
        3.2345397320961614e-35,
        4.460735473115692e-33,
        1.2070266491262174e-39,
        -1.3933381864307987e-30,
        -3.3821568807904105e-23,
        -5.808301258405239e-35,
        -7.785524653420362e-26,
        9.308091642322208e-37,
        2.8880840091497787e-35,
        -1.2643436573178679e-26,
        -3.419386333557336e-33,
        1.198675216969938e-31,
        -7.950368614394199e-33,
        1.5097375255970537e-38,
        8.239324962293488e-33
    ],
    "raw_score": 0.9620331525802612,
    "predicted_score": 4.810165762901306,
    "affine_bias": 0.0020107305608689785,
    "affine_weights": [
        0.09441597759723663,
        0.08731017261743546,
        0.10671067982912064,
        0.07681918889284134,
        -0.0674055889248848,
        -0.24193841218948364,
        -0.002894464647397399,
        0.01959221437573433,
        -1.155411695727751e-19,
        0.09102226793766022,
        -0.1431274265050888,
        -0.053916141390800476,
        -0.2439400851726532,
        0.014453730545938015,
        0.02152922749519348,
        0.08367715030908585,
        0.003000653116032481,
        0.0006495900452136993,
        -0.0023158113472163677,
        1.2929247532156296e-05,
        0.00028936919989064336,
        7.061881478875875e-05,
        0.0002716504386626184,
        -0.0020618485286831856,
        0.0006038102437742054,
        -0.0012037940323352814,
        0.0002367023262195289,
        -0.002112590242177248,
        -0.0010363084729760885,
        0.0012372825294733047,
        -0.0017973370850086212,
        -0.0006022126181051135,
        0.00020707918156404048,
        -0.0005648517981171608,
        -0.0012474694522097707,
        9.132040577242151e-05,
        0.0019701290875673294,
        -0.0033834686037153006,
        -0.00028123907395638525,
        0.00442214822396636,
        0.00023893483739811927,
        0.0006041048327460885,
        0.004742334131151438,
        0.0014643819304183125,
        -0.002174514112994075,
        0.00047388693201355636,
        -8.778565825195983e-05,
        -0.001334891188889742
    ]
}